Language model created by QuickLM on Sun Sep  9 12:58:26 EDT 2018
Copyright (c) 1996-2010 Carnegie Mellon University and Alexander I. Rudnicky

The model is in standard ARPA format, designed by Doug Paul while he was at MITRE.

The code that was used to produce this language model is available in Open Source.
Please visit http://www.speech.cs.cmu.edu/tools/ for more information

The (fixed) discount mass is 0.5. The backoffs are computed using the ratio method.
This model based on a corpus of 4 sentences and 8 words

\data\
ngram 1=8
ngram 2=10
ngram 3=6

\1-grams:
-0.8451 </s> -0.3010
-0.8451 <s> -0.2341
-1.4472 HELLO -0.2341
-1.4472 IRON -0.2852
-1.4472 JARVIS -0.2341
-1.4472 MAN -0.2341
-1.4472 THANK -0.2852
-1.4472 YOU -0.2341

\2-grams:
-0.9031 <s> HELLO 0.0000
-0.9031 <s> IRON 0.0000
-0.9031 <s> JARVIS 0.0000
-0.9031 <s> THANK 0.0000
-0.3010 HELLO </s> -0.3010
-0.3010 IRON MAN 0.0000
-0.3010 JARVIS </s> -0.3010
-0.3010 MAN </s> -0.3010
-0.3010 THANK YOU 0.0000
-0.3010 YOU </s> -0.3010

\3-grams:
-0.3010 <s> HELLO </s>
-0.3010 <s> IRON MAN
-0.3010 <s> JARVIS </s>
-0.3010 <s> THANK YOU
-0.3010 IRON MAN </s>
-0.3010 THANK YOU </s>

\end\
